34 64
0 -0.314321 -0.259736 0.255866 -0.163919 -0.166417 0.022299 -0.024419 -0.049967 0.107736 -0.083134 0.399029 0.305067 -0.182889 0.059594 0.296532 -0.308567 -0.033948 -0.333410 -0.110521 -0.266257 0.020425 -0.094826 0.039868 0.286925 -0.074882 -0.108357 0.122449 -0.069874 -0.079068 -0.367043 -0.119137 0.038998 -0.205713 -0.013985 0.180535 -0.179481 0.386928 0.293257 0.144159 -0.101250 -0.217074 -0.123716 0.276914 0.351034 -0.150192 0.254534 0.350226 -0.181311 -0.261459 0.159659 0.026697 0.101851 -0.082541 -0.293576 -0.083219 -0.246964 -0.209321 0.221055 -0.352257 0.059697 0.096427 -0.304843 0.016167 0.321603
2 -0.023511 -0.237418 0.192186 -0.067079 -0.139157 -0.081927 -0.049802 0.080396 -0.115444 0.061821 0.064005 0.071503 0.096370 -0.425631 0.056678 -0.271853 0.013791 -0.073853 0.042267 0.001325 0.180749 -0.090753 0.175649 0.142036 -0.168584 0.023864 -0.125162 0.081642 0.076949 0.209760 0.025999 0.109632 -0.210882 0.095742 -0.257686 -0.237484 0.217002 0.163900 0.180384 -0.005097 -0.105727 -0.062084 0.056388 0.277397 -0.142331 0.364391 -0.110750 -0.168227 -0.232578 0.064783 -0.095646 0.029913 -0.108044 0.023692 -0.345040 -0.081341 -0.207710 0.213261 -0.233400 0.256499 0.064754 -0.182178 0.017838 0.319979
33 -0.034054 -0.403900 0.122130 0.069800 -0.163951 -0.112420 -0.294142 0.270942 0.329358 0.104645 0.354812 0.423351 0.051940 -0.249513 0.337837 -0.204560 -0.136605 0.076585 -0.058929 0.262835 0.150391 -0.220034 0.396836 -0.040337 -0.219995 0.251284 -0.200017 -0.124770 0.045727 0.011660 0.020083 0.345699 -0.228604 0.204857 -0.125347 -0.402570 0.235049 0.247880 0.020541 0.374847 -0.229294 0.004564 0.149975 0.262961 -0.209946 0.430567 -0.024464 -0.316658 -0.318321 -0.192947 -0.260804 0.050904 0.119002 -0.289301 -0.145236 0.106743 -0.340052 0.179526 -0.141701 0.126156 0.147682 -0.522646 0.047321 0.580209
32 -0.087060 -0.716426 0.202297 0.078411 -0.220166 -0.042465 0.161431 -0.043360 -0.310521 0.146251 -0.154620 0.209390 0.093902 -0.473836 0.139780 -0.312511 -0.027385 -0.064301 -0.042550 0.133097 0.439192 0.062705 0.289779 0.011653 -0.297334 0.303241 -0.100019 0.263471 0.086844 0.278136 -0.141714 0.031526 -0.057279 0.461083 -0.370179 -0.237304 0.223465 0.177091 0.171608 -0.133926 -0.374530 0.006803 -0.095673 0.451836 -0.132949 0.514709 -0.204212 -0.111225 -0.084374 -0.220582 -0.405871 0.068506 0.007752 0.020743 -0.392233 -0.095848 -0.472233 0.102704 -0.252349 0.245027 0.219792 -0.199023 0.215177 0.436676
24 0.262691 -0.027870 0.130021 0.186468 -0.152435 -0.285236 -0.183932 -0.074207 -0.118050 0.197320 0.262448 0.006776 0.490181 -0.532936 -0.246557 -0.509548 -0.046880 -0.025169 0.374388 0.196821 0.503016 -0.121453 0.122144 0.760865 0.035720 -0.008734 -0.265804 -0.043602 -0.294755 0.700215 -0.108275 0.196829 -0.509091 -0.124529 -0.330934 -0.158230 0.141143 -0.057068 0.063146 -0.494053 -0.108414 0.443043 -0.298257 -0.047748 0.058295 0.660765 -0.406349 0.205030 -0.080946 -0.016461 0.046730 0.347416 -0.242392 0.143157 -0.189336 -0.023429 0.299611 0.028894 -0.316315 0.109190 -0.015600 -0.041701 0.046028 0.053738
5 -0.084783 -0.587299 -0.005239 0.150339 -0.019169 -0.033658 0.584006 -0.433944 0.310579 -0.199611 0.380321 0.653260 -0.496805 0.227968 0.673856 -0.876190 -0.542754 -0.724205 -0.485558 -0.299472 0.219609 0.360497 0.029440 0.537321 0.307082 -0.164560 0.236621 -0.268939 -0.238463 -0.463044 -0.716423 0.014725 -0.643053 0.099426 0.482916 -0.113980 0.480578 0.043395 -0.219126 -0.553080 -0.188153 0.321488 0.333529 0.329551 -0.188927 0.222914 0.509052 -0.103717 -0.149393 0.097560 0.003425 0.538865 0.230973 -0.148066 0.312063 -0.370906 0.006285 -0.138841 0.049446 -0.532106 0.159051 -0.470582 0.053477 0.090275
8 -0.025664 -0.330700 0.203079 0.023757 -0.168470 -0.105937 -0.217700 0.233006 0.093523 0.131792 0.186632 0.205706 0.112564 -0.409381 0.161899 -0.285921 -0.014462 0.031296 0.064071 0.163858 0.155417 -0.170737 0.304200 0.052285 -0.155601 0.188902 -0.192273 0.057707 0.081788 0.208171 0.003593 0.271460 -0.259791 0.179449 -0.222064 -0.359718 0.185783 0.204944 0.141993 0.232203 -0.189017 -0.030015 0.100357 0.311295 -0.174265 0.407142 -0.136973 -0.251155 -0.291099 -0.047921 -0.212835 0.033446 -0.007120 -0.041702 -0.288738 0.011413 -0.316924 0.174532 -0.197411 0.211447 0.082532 -0.335918 0.019500 0.446248
1 -0.229375 -0.165809 0.330811 -0.154750 -0.162905 -0.077766 -0.074739 0.080463 -0.055994 -0.008855 0.266609 0.021800 -0.025674 -0.317232 0.071808 -0.365505 0.132746 -0.247366 0.059447 -0.261256 0.033480 -0.128581 0.018549 0.360297 -0.033850 -0.164552 0.012163 0.146951 0.076774 0.003998 -0.061587 0.064657 -0.329137 0.016410 -0.096125 -0.238040 0.266306 0.290297 0.271837 -0.065150 -0.105953 -0.148085 0.230839 0.356461 -0.198988 0.271878 0.157054 -0.189880 -0.285585 0.256679 0.037978 0.087271 -0.226079 0.020408 -0.382395 -0.246454 -0.184399 0.271234 -0.350680 0.308597 -0.019982 -0.124641 -0.082836 0.319592
29 0.578659 0.266191 -0.305812 -0.151652 0.111153 -0.429715 0.293735 -0.596479 -0.110238 -0.073864 -0.008353 0.129667 0.319278 -0.616038 -0.154252 -0.412391 -0.425109 -0.443913 0.120098 0.315757 0.727703 -0.073891 -0.031357 0.738135 -0.107591 -0.456383 -0.406203 -0.700374 -0.495879 0.651256 0.122067 0.183434 -0.210990 -0.697535 -0.640849 -0.255775 0.608069 -0.254174 -0.102357 -0.912248 0.214921 0.265256 -0.605862 -0.364369 0.157225 0.898836 -0.565684 0.172281 -0.407488 0.466624 0.296976 0.480386 -0.162361 -0.322897 -0.179836 0.049812 0.654547 0.199826 -0.217904 -0.238264 0.292933 -0.703836 0.030079 0.204845
23 0.465512 0.293628 -0.112059 -0.103099 0.043499 -0.365373 0.123806 -0.356838 -0.193980 -0.014067 0.011908 -0.057247 0.395998 -0.662974 -0.274030 -0.395703 -0.209471 -0.283615 0.240226 0.201941 0.572756 -0.097638 -0.022666 0.757578 -0.033262 -0.374408 -0.371170 -0.417619 -0.393561 0.707481 0.078837 0.180292 -0.326016 -0.559647 -0.572665 -0.243548 0.419881 -0.206795 -0.013921 -0.737257 0.145432 0.218673 -0.441209 -0.228679 0.118291 0.734092 -0.521385 0.171250 -0.343881 0.433804 0.293323 0.393141 -0.248221 -0.101001 -0.250140 -0.046700 0.511519 0.182789 -0.276216 -0.073723 0.156712 -0.407787 -0.012140 0.114828
25 0.334797 0.113711 -0.027805 0.023848 -0.025865 -0.312939 0.010395 -0.253297 -0.110723 0.065694 0.110088 0.018991 0.363543 -0.484764 -0.200876 -0.439413 -0.174311 -0.185390 0.245201 0.176533 0.509024 -0.065644 0.060823 0.687618 0.023298 -0.195047 -0.259669 -0.248572 -0.335883 0.604491 -0.030442 0.171983 -0.382193 -0.339222 -0.369257 -0.163457 0.244237 -0.135326 -0.021296 -0.597234 0.017359 0.320120 -0.337929 -0.168461 0.091960 0.629246 -0.390221 0.170827 -0.183939 0.215235 0.151375 0.372173 -0.197695 0.000741 -0.150120 -0.036794 0.405578 0.071730 -0.233813 -0.046329 0.085616 -0.235855 0.002187 0.039051
27 0.129092 -0.086553 0.199660 0.075985 -0.151017 -0.190666 -0.159881 0.037036 -0.157563 0.162570 0.154965 -0.025639 0.343082 -0.492641 -0.175076 -0.464454 0.033874 -0.040125 0.289485 0.064192 0.332816 -0.104968 0.137815 0.555207 0.030160 -0.002167 -0.196540 0.110869 -0.137478 0.539014 -0.092032 0.176700 -0.451484 -0.034178 -0.261394 -0.186076 0.077747 0.011676 0.129156 -0.315348 -0.151097 0.237818 -0.104065 0.101941 -0.001029 0.484882 -0.276216 0.042401 -0.134502 0.083452 -0.005385 0.233423 -0.229262 0.202815 -0.263418 -0.097687 0.073260 0.074689 -0.276495 0.179990 -0.013341 -0.017090 -0.023048 0.071222
28 -0.009432 -0.277529 0.166658 0.035381 -0.128038 -0.087984 -0.158561 0.152618 0.086560 0.093329 0.187349 0.218814 0.094519 -0.314830 0.139135 -0.292244 -0.071461 -0.017739 0.044166 0.130796 0.145303 -0.118387 0.256400 0.107462 -0.103527 0.155404 -0.162424 0.009152 0.052201 0.165724 -0.041964 0.236675 -0.267731 0.140653 -0.143102 -0.300786 0.160740 0.145181 0.084006 0.123730 -0.165420 0.011750 0.097323 0.251391 -0.140474 0.338868 -0.112168 -0.194414 -0.235814 -0.053928 -0.173041 0.068785 -0.005157 -0.040137 -0.173280 0.000240 -0.221748 0.114209 -0.155815 0.127096 0.081094 -0.285225 0.025627 0.335429
22 -0.046594 -0.545843 0.188828 0.043207 -0.179330 -0.083422 -0.079591 0.118196 -0.023070 0.125575 0.053047 0.311412 0.093141 -0.394485 0.234978 -0.281869 -0.124780 0.008833 -0.038149 0.177991 0.304807 -0.059437 0.396719 -0.033406 -0.273991 0.308488 -0.140972 0.063570 0.089553 0.175208 -0.049958 0.192247 -0.174430 0.315625 -0.223566 -0.324671 0.208889 0.191446 0.092281 0.133211 -0.280282 -0.022321 0.048535 0.381053 -0.161181 0.474307 -0.147453 -0.220050 -0.204255 -0.182560 -0.334626 0.029524 0.035978 -0.101028 -0.242107 -0.005220 -0.414042 0.161652 -0.188883 0.168619 0.201759 -0.342574 0.134558 0.470917
30 0.024564 -0.488679 0.122502 -0.023487 -0.162685 -0.065474 0.051164 0.065750 -0.133123 0.103081 -0.128248 0.189524 0.070463 -0.517033 0.172798 -0.250552 -0.069001 -0.029852 -0.078973 0.169098 0.300895 -0.051294 0.330512 -0.095351 -0.282738 0.197750 -0.153554 0.085742 0.111160 0.239015 0.011898 0.142709 -0.087737 0.251641 -0.372375 -0.305231 0.238847 0.161688 0.147593 0.058423 -0.210054 -0.092712 0.001089 0.381818 -0.152607 0.457923 -0.210655 -0.248993 -0.237915 -0.049624 -0.300971 0.008287 0.024866 -0.043738 -0.372167 -0.005276 -0.420772 0.199183 -0.161205 0.222697 0.209965 -0.359250 0.114732 0.468209
19 -0.129122 -0.364799 0.130423 -0.013687 -0.111641 -0.043857 -0.064185 0.044021 0.245440 0.003762 0.286607 0.406081 -0.123902 -0.040028 0.357063 -0.262459 -0.188326 -0.155466 -0.142822 0.021768 0.096565 -0.067071 0.227729 0.045974 -0.106820 0.111778 -0.011813 -0.115562 -0.003920 -0.194755 -0.105899 0.179365 -0.202447 0.112770 0.081140 -0.251099 0.265258 0.221233 0.021001 0.140999 -0.181708 -0.024189 0.201395 0.268716 -0.166662 0.278634 0.161722 -0.233884 -0.245786 -0.043460 -0.144618 0.090969 0.077941 -0.259398 -0.011914 -0.053188 -0.261979 0.132307 -0.119162 -0.028163 0.140739 -0.418695 0.048579 0.383168
3 -0.121310 -0.139225 0.326567 -0.116800 -0.149037 -0.092179 -0.042764 0.133837 -0.157186 0.024197 0.133687 -0.083824 0.042851 -0.511179 -0.000835 -0.406827 0.154246 -0.181704 0.082151 -0.202122 0.043717 -0.107057 0.063884 0.330621 -0.008978 -0.128540 -0.065510 0.216614 0.139414 0.211958 -0.060912 0.105753 -0.386619 0.058284 -0.219001 -0.279319 0.212359 0.217810 0.270988 -0.047825 -0.088634 -0.145860 0.199419 0.371754 -0.196260 0.277890 0.012099 -0.221291 -0.312243 0.281645 0.008899 0.070128 -0.236053 0.175250 -0.468847 -0.226534 -0.214489 0.239556 -0.301890 0.353666 -0.033798 -0.078167 -0.113850 0.287234
13 -0.183521 -0.085952 0.391412 -0.216365 -0.174946 -0.081082 -0.020567 0.090217 -0.219307 -0.003961 0.147551 -0.165275 0.023344 -0.543683 -0.021197 -0.411332 0.210051 -0.257035 0.077995 -0.337400 0.020995 -0.121351 -0.023889 0.400800 -0.039539 -0.232817 -0.003082 0.252687 0.152094 0.160072 -0.038697 0.059435 -0.385606 -0.011471 -0.214352 -0.272521 0.295730 0.297215 0.350937 -0.091753 -0.048872 -0.228928 0.231587 0.427530 -0.220219 0.290172 0.086749 -0.219542 -0.359695 0.393315 0.069097 0.058201 -0.308556 0.181233 -0.560084 -0.320788 -0.227793 0.298576 -0.384628 0.418507 -0.048939 -0.030272 -0.137293 0.293179
10 -0.134452 -0.467772 0.088200 0.064617 -0.057906 0.008477 0.366016 -0.247612 0.185509 -0.127197 0.277943 0.491245 -0.362655 0.151978 0.506111 -0.630866 -0.356261 -0.505777 -0.342923 -0.278977 0.151554 0.228631 0.086445 0.364746 0.172142 -0.084244 0.191598 -0.128823 -0.152737 -0.366783 -0.499350 0.019229 -0.468867 0.108421 0.352443 -0.104358 0.359164 0.068781 -0.120159 -0.362267 -0.226104 0.183837 0.331541 0.330107 -0.143622 0.192653 0.412444 -0.124050 -0.137837 0.101257 -0.013245 0.352900 0.135728 -0.107846 0.169088 -0.303693 -0.103979 -0.047350 -0.047135 -0.315867 0.145682 -0.343867 0.020863 0.092740
26 0.570169 0.380115 -0.269120 -0.207125 0.142318 -0.446953 0.331952 -0.611627 -0.147607 -0.139820 -0.000838 0.036492 0.315144 -0.628307 -0.188126 -0.387340 -0.383489 -0.491082 0.107755 0.229905 0.692014 -0.057720 -0.075938 0.827914 -0.074179 -0.564118 -0.402196 -0.723231 -0.521513 0.627388 0.120045 0.170935 -0.245066 -0.793419 -0.634480 -0.281487 0.650316 -0.266526 -0.114147 -0.944101 0.251489 0.187900 -0.567578 -0.366072 0.129923 0.863365 -0.520821 0.187114 -0.456401 0.596444 0.416713 0.510193 -0.206057 -0.348204 -0.184587 -0.034638 0.696873 0.229935 -0.273510 -0.245843 0.276630 -0.688225 -0.001229 0.202126
14 -0.079633 -0.701233 0.244967 0.035265 -0.207864 -0.042790 0.060768 0.037285 -0.276174 0.162197 -0.166826 0.248374 0.117177 -0.499425 0.171106 -0.304011 -0.074751 -0.006586 -0.028518 0.140528 0.433250 0.040713 0.404249 -0.063172 -0.339717 0.370205 -0.111017 0.235907 0.107152 0.290445 -0.083263 0.092254 -0.091511 0.450810 -0.335042 -0.279226 0.190480 0.166030 0.157991 -0.011574 -0.380258 -0.030066 -0.023342 0.479966 -0.131071 0.526219 -0.237922 -0.169617 -0.127088 -0.200091 -0.419595 0.013280 0.011811 0.010351 -0.362096 -0.067762 -0.527422 0.155484 -0.247670 0.240955 0.252083 -0.252901 0.214873 0.428450
16 -0.065486 -0.588376 0.060578 0.180151 -0.037595 -0.048725 0.539806 -0.371053 0.332121 -0.158994 0.396195 0.716966 -0.478928 0.209983 0.721495 -1.015692 -0.623503 -0.739584 -0.482046 -0.353645 0.219552 0.371280 0.146257 0.579025 0.383586 -0.114285 0.242007 -0.250420 -0.264826 -0.427234 -0.793716 0.109027 -0.811847 0.081705 0.565576 -0.132354 0.450602 -0.019851 -0.272893 -0.590921 -0.279856 0.409029 0.451824 0.362846 -0.173338 0.233286 0.518743 -0.131956 -0.190206 0.170398 0.012521 0.590464 0.212669 -0.056384 0.369386 -0.401237 -0.018746 -0.152576 0.060048 -0.604611 0.198114 -0.501824 -0.011863 -0.012128
31 0.276582 -0.037615 0.127482 0.185451 -0.112206 -0.263376 -0.129363 -0.051128 -0.138918 0.189433 0.151377 0.016486 0.436340 -0.517030 -0.214945 -0.550039 -0.096948 -0.024512 0.326542 0.159316 0.449784 -0.056462 0.159485 0.671419 0.107847 0.023355 -0.230882 0.024782 -0.246165 0.681920 -0.168685 0.225762 -0.549751 -0.080051 -0.261524 -0.143512 0.039458 -0.124955 0.025519 -0.471825 -0.133980 0.426817 -0.205229 -0.031736 0.065623 0.542140 -0.396400 0.138506 -0.078861 0.047575 0.008132 0.347068 -0.199276 0.236190 -0.143757 -0.055952 0.238685 -0.025703 -0.219780 0.029728 0.014842 -0.029659 -0.015599 -0.061091
20 -0.021424 -0.670710 0.204764 0.056158 -0.186879 -0.058232 0.103209 0.046601 -0.251598 0.144152 -0.190348 0.228390 0.122421 -0.539854 0.172415 -0.316241 -0.110467 0.000929 -0.058405 0.176483 0.412808 0.040452 0.407899 -0.085996 -0.307446 0.370431 -0.134936 0.195827 0.130719 0.310849 -0.107197 0.126017 -0.106017 0.434877 -0.353975 -0.304919 0.200866 0.124192 0.126529 0.000630 -0.351181 -0.040891 -0.032835 0.461124 -0.133160 0.503870 -0.271087 -0.200552 -0.153510 -0.193473 -0.429289 0.023992 0.050248 0.019764 -0.356161 -0.042604 -0.513903 0.112542 -0.199430 0.212715 0.264456 -0.281898 0.191566 0.431475
9 0.008507 -0.406217 0.095771 0.041745 -0.116050 -0.100353 -0.195018 0.210685 0.276117 0.093686 0.218574 0.431274 0.022882 -0.279847 0.349239 -0.265788 -0.232604 0.036350 -0.109617 0.234470 0.154122 -0.118528 0.437025 -0.105572 -0.198317 0.284813 -0.169561 -0.132314 0.069009 0.043596 -0.021908 0.344210 -0.250538 0.187945 -0.072120 -0.384006 0.219746 0.175769 -0.015556 0.330580 -0.209905 -0.015644 0.162927 0.288344 -0.190274 0.385778 -0.069580 -0.328060 -0.315528 -0.148881 -0.279638 0.042653 0.117649 -0.198967 -0.082622 0.081442 -0.352625 0.145772 -0.070641 0.026196 0.191630 -0.516743 0.032138 0.480236
18 -0.036997 -0.515611 0.131836 0.069681 -0.142980 -0.083901 -0.214835 0.225673 0.295350 0.122222 0.231897 0.506423 0.010194 -0.236767 0.410740 -0.281884 -0.257402 0.045773 -0.132484 0.250175 0.188367 -0.114430 0.492749 -0.138971 -0.215174 0.372232 -0.143659 -0.097850 0.082143 -0.003827 -0.059283 0.349183 -0.238230 0.278724 -0.033644 -0.392317 0.207450 0.208439 -0.008891 0.377065 -0.274502 0.007583 0.183927 0.338535 -0.200852 0.409398 -0.047813 -0.335764 -0.289773 -0.220862 -0.342922 0.027323 0.160850 -0.224199 -0.058730 0.086442 -0.432923 0.129403 -0.081399 0.018514 0.221434 -0.541300 0.081398 0.510305
17 -0.335164 -0.254516 0.244937 -0.151406 -0.153722 -0.012512 0.008753 -0.087597 0.168819 -0.098402 0.471354 0.333327 -0.230479 0.108236 0.316208 -0.333381 -0.062654 -0.406575 -0.122997 -0.297964 0.013576 -0.078935 -0.002966 0.341012 -0.032707 -0.169450 0.131188 -0.098282 -0.071955 -0.394160 -0.143061 0.021772 -0.244784 -0.038420 0.209118 -0.182114 0.419068 0.331191 0.128382 -0.103992 -0.159332 -0.106063 0.281448 0.322564 -0.187751 0.242273 0.418547 -0.156682 -0.271756 0.175073 0.064642 0.145257 -0.080601 -0.319051 -0.056483 -0.276368 -0.151949 0.221850 -0.319419 0.028179 0.061789 -0.303995 0.007385 0.331854
6 -0.099166 -0.540923 0.064812 0.123530 -0.034131 -0.028820 0.509251 -0.357621 0.293792 -0.170335 0.379347 0.646110 -0.470860 0.197730 0.665728 -0.892159 -0.544077 -0.705269 -0.449952 -0.351469 0.177729 0.321315 0.092830 0.513719 0.320981 -0.142834 0.242338 -0.242708 -0.221439 -0.435012 -0.693836 0.064213 -0.688353 0.069025 0.512933 -0.128744 0.447468 0.036996 -0.218389 -0.530159 -0.238321 0.308574 0.418633 0.346003 -0.184978 0.214829 0.512143 -0.150935 -0.184093 0.177012 0.015497 0.519019 0.173391 -0.102673 0.312619 -0.387596 -0.036533 -0.110273 0.028370 -0.524481 0.185713 -0.461540 -0.005221 0.040903
15 -0.008462 -0.692064 0.194456 0.060239 -0.180126 -0.056955 0.075907 0.027364 -0.252852 0.169030 -0.202818 0.259963 0.151890 -0.546042 0.165567 -0.305875 -0.140018 0.024855 -0.042431 0.225212 0.457823 0.049144 0.442287 -0.109969 -0.347369 0.414585 -0.165241 0.186297 0.120985 0.352265 -0.088503 0.144015 -0.080544 0.442807 -0.372716 -0.303470 0.172909 0.119337 0.127388 0.013148 -0.361942 -0.015361 -0.072019 0.442375 -0.111544 0.545723 -0.334144 -0.186887 -0.140796 -0.239289 -0.455759 0.018002 0.042699 0.020748 -0.339428 -0.020232 -0.518860 0.106317 -0.184628 0.202476 0.286980 -0.284807 0.210250 0.423916
12 -0.383161 -0.246983 0.287030 -0.183756 -0.167542 -0.014553 -0.020890 -0.087116 0.138591 -0.101015 0.496605 0.311742 -0.236358 0.107068 0.307858 -0.339059 -0.038617 -0.412600 -0.100761 -0.362149 0.006389 -0.080457 -0.016109 0.371520 -0.045093 -0.202403 0.162371 -0.063180 -0.067904 -0.419860 -0.133980 0.004249 -0.267217 -0.046047 0.225901 -0.160952 0.420598 0.369421 0.161728 -0.105256 -0.159347 -0.118073 0.317603 0.335611 -0.199297 0.249136 0.461054 -0.161329 -0.282767 0.200307 0.092103 0.145118 -0.119592 -0.315520 -0.093324 -0.313935 -0.152570 0.247601 -0.366181 0.075000 0.050454 -0.268726 -0.008405 0.341761
4 -0.310709 -0.195900 0.255068 -0.153686 -0.155296 -0.037708 -0.067091 -0.046064 0.104212 -0.075372 0.441840 0.252107 -0.138418 0.035088 0.223860 -0.279608 0.000660 -0.329504 -0.041665 -0.257600 0.046587 -0.116739 -0.005106 0.344824 -0.070748 -0.164216 0.090496 -0.055563 -0.067172 -0.302652 -0.078420 0.010963 -0.212100 -0.049923 0.119704 -0.168380 0.380707 0.330821 0.162120 -0.092255 -0.145452 -0.105601 0.232537 0.285761 -0.163009 0.267576 0.341345 -0.134683 -0.256596 0.155511 0.081659 0.115224 -0.120962 -0.289087 -0.124959 -0.242288 -0.120846 0.241575 -0.360080 0.108125 0.049999 -0.251491 0.012532 0.337430
11 -0.316057 -0.262779 0.208008 -0.150589 -0.146649 -0.023387 -0.016818 -0.089718 0.150177 -0.096249 0.435231 0.331788 -0.196826 0.099091 0.306462 -0.256761 -0.060726 -0.350463 -0.107288 -0.234463 0.071834 -0.096453 0.014753 0.292084 -0.113339 -0.152015 0.091342 -0.125990 -0.097802 -0.374103 -0.072513 0.008653 -0.151013 -0.043808 0.140113 -0.165764 0.435935 0.332574 0.119900 -0.083119 -0.155085 -0.093078 0.214380 0.274698 -0.171335 0.296968 0.371070 -0.128796 -0.259034 0.121010 0.055078 0.127118 -0.063531 -0.377760 -0.078263 -0.228692 -0.138918 0.238828 -0.343948 0.056875 0.084326 -0.332750 0.052701 0.389267
7 -0.067609 -0.207983 0.212288 -0.062178 -0.155985 -0.073716 -0.048959 0.074844 -0.086716 0.044915 0.121988 0.042079 0.071669 -0.390754 0.046074 -0.300916 0.069356 -0.122616 0.054664 -0.052331 0.136593 -0.106158 0.102319 0.239076 -0.084298 -0.031363 -0.095232 0.109273 0.053450 0.161411 -0.025348 0.103828 -0.249665 0.070702 -0.215540 -0.234279 0.211029 0.181644 0.193926 -0.052430 -0.127976 -0.063201 0.085576 0.293776 -0.141628 0.328643 -0.035033 -0.151392 -0.223742 0.107461 -0.067539 0.072037 -0.132746 0.040989 -0.346818 -0.122373 -0.186211 0.181809 -0.253135 0.259593 0.032665 -0.147941 -0.005270 0.309457
21 -0.398904 -0.277318 0.304936 -0.173551 -0.196254 -0.008118 -0.052407 -0.054061 0.131167 -0.078691 0.502711 0.309074 -0.207802 0.079754 0.294010 -0.326929 0.008489 -0.383496 -0.070264 -0.321139 0.023380 -0.112591 -0.007158 0.372868 -0.068290 -0.170451 0.134548 -0.032392 -0.063885 -0.395445 -0.115689 0.005122 -0.240493 -0.002983 0.176770 -0.189897 0.414692 0.392284 0.189860 -0.085502 -0.202793 -0.116368 0.293664 0.355891 -0.207353 0.275844 0.436718 -0.161203 -0.265967 0.160288 0.065286 0.135439 -0.114836 -0.322353 -0.127938 -0.292947 -0.187482 0.250939 -0.404508 0.126080 0.038831 -0.269571 0.015778 0.388595
